digraph Tree {
node [shape=box, fontname="helvetica"] ;
edge [fontname="helvetica"] ;
0 [label="Price <= 4.965\nsquared_error = 0.259\nsamples = 247\nvalue = 0.19"] ;
1 [label="Value <= 88280.0\nsquared_error = 1.074\nsamples = 49\nvalue = 0.538"] ;
0 -> 1 [labeldistance=2.5, labelangle=45, headlabel="True"] ;
2 [label="Owned <= 777422.0\nsquared_error = 0.489\nsamples = 38\nvalue = 0.354"] ;
1 -> 2 ;
3 [label="Price <= 1.77\nsquared_error = 0.036\nsamples = 27\nvalue = 0.179"] ;
2 -> 3 ;
4 [label="squared_error = 0.055\nsamples = 10\nvalue = 0.288"] ;
3 -> 4 ;
5 [label="squared_error = 0.013\nsamples = 17\nvalue = 0.115"] ;
3 -> 5 ;
6 [label="squared_error = 1.34\nsamples = 11\nvalue = 0.785"] ;
2 -> 6 ;
7 [label="squared_error = 2.58\nsamples = 11\nvalue = 1.172"] ;
1 -> 7 ;
8 [label="Title__Club of 10% <= 0.5\nsquared_error = 0.02\nsamples = 198\nvalue = 0.103"] ;
0 -> 8 [labeldistance=2.5, labelangle=-45, headlabel="False"] ;
9 [label="DeltaOwn <= 340.5\nsquared_error = 0.013\nsamples = 182\nvalue = 0.092"] ;
8 -> 9 ;
10 [label="Owned <= 21964.5\nsquared_error = 0.01\nsamples = 167\nvalue = 0.08"] ;
9 -> 10 ;
11 [label="Owned <= 7731.5\nsquared_error = 0.003\nsamples = 66\nvalue = 0.045"] ;
10 -> 11 ;
12 [label="squared_error = 0.002\nsamples = 34\nvalue = 0.031"] ;
11 -> 12 ;
13 [label="squared_error = 0.004\nsamples = 32\nvalue = 0.061"] ;
11 -> 13 ;
14 [label="Price <= 14.98\nsquared_error = 0.013\nsamples = 101\nvalue = 0.103"] ;
10 -> 14 ;
15 [label="squared_error = 0.029\nsamples = 31\nvalue = 0.145"] ;
14 -> 15 ;
16 [label="squared_error = 0.004\nsamples = 70\nvalue = 0.084"] ;
14 -> 16 ;
17 [label="squared_error = 0.036\nsamples = 15\nvalue = 0.222"] ;
9 -> 17 ;
18 [label="squared_error = 0.071\nsamples = 16\nvalue = 0.237"] ;
8 -> 18 ;
}